//
// Created by bart on 11/20/19.
//

#ifndef CRAZYFLIE_FIRMWARE_WEIGHTS_H
#define CRAZYFLIE_FIRMWARE_WEIGHTS_H

#endif //CRAZYFLIE_FIRMWARE_WEIGHTS_H

float weights_1[120] = {-0.356736, -0.222009, -0.085215, 0.122720, 0.236865, 0.018153, -0.281379, 0.692491, -0.590600, -0.351900, 0.326683, 0.392843, -0.062328, -0.359081, 0.456434, 0.589959, 0.473660, -0.322282, 0.135672, -0.579189, 0.456279, -0.440191, 0.621389, 0.802622, 0.328219, -0.765860, -0.189133, -0.173341, -0.407787, -1.014724, 0.081914, 0.076430, 0.032811, 0.166573, -0.100556, 0.076754, -0.087171, -0.150783, 0.609794, -0.432474, -0.254682, 0.406956, 0.282673, 0.238435, 0.108738, -0.187557, -0.134558, -0.270491, 0.437567, -0.156434, -0.633801, -0.485175, 0.037690, 0.286816, 0.613323, -0.380539, -0.115771, 0.534201, 0.212027, 0.524335, -0.917084, 0.484758, -0.677468, 0.063217, -0.060966, 0.288525, 0.341296, 0.019597, -0.304894, 0.568088, 0.411785, 0.678098, 0.280463, 0.313425, -0.318642, 0.477695, 0.173719, 0.763107, 0.459028, 0.088661, -0.149463, 0.969398, -0.343328, 0.534213, 1.107553, 0.388581, -0.870330, 0.271290, 0.345788, 0.686571, 0.596781, -0.273316, 0.927355, -0.524213, -0.440765, -0.613396, -0.408226, -0.118788, -0.752875, -0.669489, 0.107985, 0.178890, -0.621024, -0.668650, 0.027027, 0.785114, 0.054651, 0.433061, -0.080220, 0.172219, 0.016067, 0.225380, -0.435687, 0.496793, 0.288039, -0.026306, 0.121963, 0.367293, 0.503498, -0.698337};
float bias_1[20] = {0.253567, -0.057372, -0.534657, 0.039137, -0.345675, 0.171057, 0.170539, -0.278131, 0.302599, 0.274189, -0.122869, 0.320968, -0.195742, 0.509083, 0.586048, 0.466036, 0.607763, 0.450874, 0.617245, -0.004032};
float weights_2[400] = {0.172114, 0.361320, -0.005732, 0.112234, 0.468334, -0.378236, -0.388860, 0.007750, 1.110643, -0.191822, 0.646729, 0.814559, -0.107443, -0.382146, 1.046017, -0.401770, 0.634158, 0.342539, -0.030232, -0.235501, -0.554749, -0.365648, 0.155238, -0.671323, -0.319466, 1.177300, -0.733093, -0.040353, -0.879011, 0.516018, -0.578847, 0.051833, -0.177548, 0.908258, -0.617821, 0.609063, -0.264931, -1.122699, -0.108702, -0.151861, -0.445814, -0.545637, -0.166892, -0.466758, -0.243992, -0.750796, -0.917618, -0.326700, -0.568009, 0.149350, -0.739298, -0.086028, -0.311568, 0.356239, -0.594611, -0.029212, -1.024261, -0.681427, 0.359697, -0.173530, 0.429894, 0.260381, 0.093660, -0.173061, -0.294194, -0.186756, -0.279046, 0.421460, 0.395778, 0.323750, 0.449242, 0.055331, -0.379872, 0.230802, 0.050844, -0.205153, -0.283312, -0.302556, 0.041437, 0.053284, -0.146760, -0.062932, -0.199162, -0.520820, 0.126770, 0.359347, -0.292193, -0.012805, -0.186433, 0.098119, 0.014518, 0.120425, -0.340441, 0.556257, 0.156458, 0.527676, -0.758634, -0.170128, 0.733315, -0.078821, 1.074623, 0.931532, 0.273105, 0.445698, 0.241276, -0.417466, 0.482461, -0.159221, 0.683578, 0.797297, 0.498768, 0.948541, 0.334540, -0.370300, 1.150188, 0.218435, 0.647277, 0.544070, 0.589389, 0.375523, 0.104233, -0.557627, 0.132492, 0.344064, -0.386258, 0.392037, 0.051996, 0.424206, -0.398608, -0.192984, 0.242006, -0.743731, 0.106886, 0.125147, 0.173638, -0.091255, 0.069049, -0.433211, -0.660994, 0.505618, -0.552384, -0.183647, 0.060351, -1.576327, -0.334402, 0.824213, -0.548407, 0.322744, -0.274306, -0.206248, 0.111285, -0.145330, -0.289761, 0.912465, -0.528597, -0.111966, -0.755026, -0.655424, 0.635388, -0.097113, 0.394226, 0.561141, 0.383009, 0.810432, 0.391473, -0.463123, 0.443682, -0.477289, 0.338762, 0.304470, 0.228617, 0.606039, 0.144041, -0.254355, 0.255763, -0.469789, 0.241380, -0.262945, 0.422734, 0.304056, 0.951417, 0.059427, 0.146291, 0.727113, -0.394212, -0.393779, 0.341184, 0.056844, 0.474127, 0.260189, -0.258887, 0.568833, 0.265033, -0.600756, 0.758511, -0.201850, 0.674756, 0.685897, 1.040480, 0.094101, -0.427835, -0.429482, -0.287341, -0.725827, -0.769461, 0.581776, -0.294672, 0.599240, -0.181789, -0.578454, 0.025622, -0.767319, -0.119496, 0.641134, -0.483912, 0.195565, 0.143934, -0.032098, 0.464635, -0.275035, 0.030550, 0.437353, -0.125084, -0.173892, -0.213203, 0.479295, 0.307326, -0.490388, -0.182025, -0.414159, 0.027109, 0.199226, -0.245084, 0.388320, 0.331092, 0.365433, 0.389664, 0.561366, -0.149256, -0.235525, -0.180121, -0.331910, -0.369019, -0.566747, -0.599282, 0.205306, 0.087459, 0.352861, 0.028645, 0.632642, -0.259511, -0.694384, -0.336560, 0.773680, -0.297431, 0.022461, -0.077854, -0.554428, 0.178798, -0.085791, 0.701417, 0.253632, -0.160457, 0.670163, 0.441413, -0.228589, 0.679745, -0.048328, 0.440887, -0.177097, 0.645983, 0.521028, 0.005902, -0.140315, 0.232543, -0.356810, 0.533237, 0.072194, 0.252089, 0.306095, 0.606506, 0.611797, -0.274395, 0.516691, 0.602424, -0.059779, -0.045748, 0.212726, 0.750183, 0.143218, 0.175796, 0.075693, -0.124573, -0.209754, 0.515952, -0.165025, 0.403182, 0.485001, -0.226297, -0.183038, 0.076715, 0.570304, 0.325808, 0.201589, 0.206871, 0.044601, 0.298401, -0.019254, 0.103840, -0.282322, 0.221506, 0.547244, 0.003055, -0.103347, 0.177922, -0.346747, 0.412668, 0.252561, -0.288042, 0.115350, -0.168093, 0.735474, -0.209905, 0.167374, 0.394967, -0.016456, 0.575509, -0.186311, 0.267655, -0.432480, 0.507148, 0.501905, -0.288169, 0.162857, 0.108812, -0.411426, 0.463459, 0.675414, 0.111396, 0.040882, 0.413862, -0.101699, -0.305563, 0.714076, -0.225660, 0.331657, 0.687461, 0.303177, 0.234826, 0.469410, -0.241687, 0.036053, 0.238787, -0.177365, 0.228588, 0.315831, 0.254190, 0.046207, -0.340292, 0.083076, 0.521060, 0.563030, -0.051326, 0.025351, 0.292204, -0.220044, 0.038109, -0.105123, 0.566570, -0.105744, 0.346370, 0.511509, -0.111394, -0.082981, 0.434168, 0.146408, -0.135320, 0.138290, 0.046583, -0.113801, -0.036629, -0.184799, 0.349667, -0.400698, 0.027505, -0.222386, -0.066289, 0.538241, -0.170894, -0.071769, -0.138318, -0.279235, -0.076317, -0.884879, -0.165351, -0.039418, -0.648944, -0.965095, -0.234975, 0.272359};
float bias_2[20] = {0.522896, 0.444304, -0.007299, 0.519963, 0.511707, -0.164908, 0.508175, -0.090051, 0.673611, 0.035229, 0.589386, 0.395792, -0.018137, -0.190951, 0.492373, 0.069803, 0.425697, 0.545995, 0.088081, 0.037287};
float weights_3[60] = {-0.529057, -0.444180, -0.113510, -0.426512, -0.045471, -0.462146, -0.476043, -0.482122, 0.265908, -0.749735, -1.239954, -0.368242, 0.015895, -0.632915, -0.764071, 0.960680, 0.865096, 0.722909, -0.753452, -0.788270, -0.390958, 0.410647, -0.442742, 0.590045, -0.313838, -0.925117, -0.729800, -0.142265, 1.272678, -0.316747, -0.013821, -0.561987, -0.418732, -0.661083, 0.024553, -0.573153, 0.025063, 0.069920, 0.065822, 1.027708, 0.427013, 0.484691, -0.722697, -0.726727, -0.260679, 0.358207, 0.779384, -0.422265, -1.176116, -0.400154, -0.871383, -0.991133, -0.488494, -1.269393, -0.219719, -0.200422, 1.084563, 0.691571, -0.369535, 0.234691};
float bias_3[3] = {-0.192347, -0.385141, -0.501099};