//
// Created by bart on 11/20/19.
//

#ifndef CRAZYFLIE_FIRMWARE_WEIGHTS_H
#define CRAZYFLIE_FIRMWARE_WEIGHTS_H

#endif //CRAZYFLIE_FIRMWARE_WEIGHTS_H

float weights_1[120] = {0.107380, -0.303504, 0.369303, 0.186093, -0.105721, -0.773304, 0.295585, 0.334090, -0.102065, 0.325073, 0.214335, 0.742271, 1.152512, 0.207441, 0.238845, -0.046546, 0.573179, 0.058079, 0.672821, 0.039852, -1.781011, -0.259668, 0.432818, -0.716810, 0.777923, -0.274606, -0.005813, 0.888354, 0.170286, 0.787202, 1.386389, 0.515869, 1.294376, -1.294251, -0.404678, 0.111225, 1.135082, -0.134542, 0.337652, 0.362941, -0.140657, -0.210092, 0.221641, 0.083894, 0.496847, 0.685506, 0.078821, -0.144657, -0.002227, 0.176187, 0.158548, 0.948573, 0.569291, 0.219790, 0.344837, -0.142858, 1.135567, -0.055631, 0.618706, 0.203822, 0.967345, -0.292501, -0.468599, 0.576409, -0.074305, 0.100460, 0.353757, 0.648647, 0.205957, -0.880837, -0.774676, 0.333731, 1.030111, 0.462357, 0.484964, -0.022518, 0.468034, 0.024724, -0.161835, 0.449109, -0.292995, 0.065242, -0.583047, 2.322786, 2.091124, -0.566998, 2.332767, 0.077857, 1.931105, 0.490896, -0.329579, 1.073139, 0.300718, -1.180925, -2.398657, -0.866848, -0.059488, -1.579424, -3.025007, -2.699170, -1.917107, 0.284742, -2.629601, 0.557398, 0.501171, -2.466060, 0.318388, 1.936344, 2.714319, 1.418909, 0.225888, -1.721901, 0.034959, -1.694172, -0.672371, -3.052284, 1.161293, -2.774125, 0.324582, 0.573953};
float bias_1[20] = {0.184457, 0.000000, 0.257659, 0.404159, 0.217449, -0.610638, 0.511630, 0.958672, 0.030052, -0.028446, -0.960409, 0.509276, 2.029069, 0.485700, 0.535841, -0.377053, 1.510204, 0.004258, 0.617108, 0.478451};
float weights_2[400] = {0.106269, 1.724717, -1.822109, -2.668794, -4.347454, -2.059493, 0.353318, -0.223800, 0.599205, -4.291440, -0.111386, 0.632214, -3.995058, -0.733095, 0.514708, 0.360946, 0.289087, -0.195823, 0.391019, 1.419091, -0.086592, -0.195278, 0.175914, 0.339668, -0.348583, -0.318320, -0.348183, 0.144696, 0.385930, -0.161795, -0.307786, 0.300943, -0.205556, 0.259846, 0.296160, -0.131186, 0.090441, -0.256097, 0.382138, -0.003487, 0.807378, 0.147102, -1.644002, -0.297591, 0.788050, 0.151557, -0.817925, -0.245873, -0.151868, -1.101557, -0.203353, -0.232886, -2.190255, -0.202660, -0.277867, -0.474830, 1.346601, -0.397024, 0.901364, -0.362428, 1.831882, 1.554893, 2.043266, 0.344984, 1.263647, 1.118016, 0.100251, -0.576831, -0.526603, 0.559422, -0.955436, -0.528525, 1.001458, -0.804337, -0.439583, -0.187379, 1.627813, -0.906626, 0.838606, 0.906467, 1.400459, 0.446582, 0.902317, 1.761883, 0.328613, 1.094592, -0.277736, -0.146425, 0.124156, 1.073206, 0.626701, -0.079017, 1.468877, -0.198538, -0.019314, -0.166471, 1.172715, 0.443544, 1.603848, 0.514979, 1.834170, -1.075770, -2.449024, -0.869148, 0.316234, -0.955851, -0.998704, -0.380991, -0.568692, 0.208634, 0.848980, -1.305671, -1.913465, 0.018998, -0.217925, -0.166708, 1.937955, -0.690990, -1.374290, -0.803423, 1.183384, 1.175708, 1.799570, 0.955842, 0.377542, 0.782194, -0.587493, -0.847998, -0.380672, 1.371106, -0.622469, -0.195516, 1.246254, -0.449531, 0.081196, -0.174636, 1.531778, -0.138686, 0.366355, 0.375098, 0.042836, -1.060339, 0.306334, 0.297945, 0.100389, 0.132603, 0.372000, 0.881218, 0.083030, 1.214422, 0.633217, 0.573639, 1.203500, 0.662786, 0.452640, 0.521712, 0.267177, 0.570511, 0.590948, -0.307187, 2.921657, 0.133978, 3.564156, 2.885117, 1.600236, 3.199635, -1.890174, -1.927733, -1.941613, 2.551055, -2.449838, -1.551143, 3.137842, -1.613501, -1.848170, -2.506667, 3.112787, -0.945369, 3.236750, 0.209056, -0.289037, 1.432860, 0.102275, -1.575201, -1.540415, 0.349702, 0.089834, -0.340993, 0.524995, -3.361903, 0.125095, -0.273194, -4.058073, -0.593667, 0.332651, 0.298881, -0.776690, 0.588289, -0.863149, 0.166055, -0.289223, 1.081963, -1.182646, -0.883882, -0.294061, 0.281105, -0.082744, -0.012444, -0.080635, -3.496216, 0.232164, -0.008206, -4.707675, 0.468187, 0.389332, 0.262514, 0.248261, -0.304218, -0.294737, 0.157360, 1.311654, 0.196934, 0.191652, 0.601548, 0.301085, 0.040891, 0.235969, -0.192167, 0.210774, 0.471364, -0.084450, -0.285875, -0.179751, -0.209225, 0.180194, -0.076225, 0.789751, -0.115891, 0.785268, 0.447260, 1.044951, -0.161130, 0.254169, -0.211973, 0.241552, 0.180773, 0.424934, 0.455581, 0.232355, 0.350992, -0.044437, 0.192076, 0.886770, 0.318153, 0.050749, 0.228403, 0.901081, -0.091692, 0.619270, -0.384190, 0.495911, 1.317355, -2.081397, -2.606268, -3.214015, -1.648432, -0.022917, -0.038747, 0.546641, -4.320531, -0.098570, 0.549992, -3.905047, -0.630824, 0.574738, 0.303420, 0.072029, -0.340025, -0.322891, 0.698839, 0.256289, 0.266304, -1.468230, -1.915358, -1.074608, -1.466421, 0.611477, 0.280466, 0.155214, -1.730433, 0.752567, 0.262097, -1.346020, 0.223243, 0.700016, 0.626541, 0.472279, 0.185099, -0.309903, -0.106355, 2.756982, -0.669171, -2.006536, 0.403490, 2.268855, 1.599802, -2.895911, -2.036855, -1.865361, -2.245122, -1.224642, -2.626835, -3.242538, -2.172556, -2.917300, -2.450803, 3.132338, -1.639815, 2.523043, -0.496796, 0.680227, -0.617769, 0.694926, 0.475204, 0.047202, 0.359986, 0.108677, 0.453750, 0.394304, 0.486638, 0.660523, 0.595217, 0.494670, 0.566067, 0.175721, 0.437289, 0.397434, 0.493836, 0.512900, -0.319985, 2.287407, -1.224844, -0.745261, 1.191446, -0.335032, 0.903359, -1.610104, -1.688822, -2.002370, -1.944477, -2.113259, -1.989379, -2.492173, -1.996400, -2.341212, -2.506690, 2.663648, -0.715977, 2.484515, -0.647179, 0.152556, -1.223911, -1.243096, -0.875691, -0.485340, -0.653038, 0.775054, 0.429731, -0.148087, -1.666201, 0.148896, 0.911849, -1.652214, 0.819945, 0.541302, 0.648873, 0.316170, 0.650653, -0.050028, -1.014368, -0.280430, -0.686535, -1.547320, -1.565848, -1.282422, -1.304424, 1.016548, 0.455709, 0.689246, -1.765521, 0.610758, 0.672607, -0.963423, 0.971289, 1.094035, 0.769682, -0.082687, 0.915448, -0.670043, -0.499903};
float bias_2[20] = {0.714751, 0.138341, 0.686669, 0.166623, 0.508021, 0.226244, 0.367494, 0.373764, -0.266853, 0.838687, 0.253382, 0.266083, 1.105913, 0.476175, 0.350772, 0.028186, 0.610873, 0.347530, 0.624387, 0.029658};
float weights_3[60] = {1.538984, 1.618515, 1.723179, -4.198826, -0.490461, -0.297346, 1.886604, 2.905718, 3.923779, 3.100616, 3.579247, 0.827417, 3.812088, 0.251526, 1.382880, 1.911676, 2.087474, 2.224812, -0.714513, -0.892459, -1.296838, -0.588967, -1.004421, -1.061422, -1.593710, -0.655686, -0.655166, 4.671199, 2.058285, 2.351009, -1.186995, -2.594343, -0.199735, -0.902974, -0.461295, -1.201287, 5.289688, 3.567267, 4.464580, -0.852882, -1.494641, -1.189394, -1.882316, -1.392603, -1.253871, -1.368986, -1.056743, -0.701074, 1.669991, 1.460191, 1.987761, -1.032901, -0.856934, -1.619855, 2.178767, 2.706170, 1.449889, -2.134799, -0.068549, -0.535232};
float bias_3[3] = {0.367602, 0.093639, 0.039866};