//
// Created by bart on 11/20/19.
//

#ifndef CRAZYFLIE_FIRMWARE_WEIGHTS_H
#define CRAZYFLIE_FIRMWARE_WEIGHTS_H

#endif //CRAZYFLIE_FIRMWARE_WEIGHTS_H

float weights_1[120] = {-0.127987, -0.175173, -0.005158, 0.427070, -0.036891, 0.111904, -0.160954, 0.575583, -0.558166, -0.322391, 0.442709, 0.944083, 0.067496, -0.279597, 0.522054, 0.750032, 0.646500, -0.117380, 0.123072, -0.574997, 0.665699, -0.411495, 0.511575, 1.121090, 0.400874, -1.533038, -0.581044, -0.519166, -0.231572, -1.145267, 0.126505, 0.262744, 0.116948, 0.280686, 0.088918, 0.163689, 0.136623, 0.009193, 0.734360, -0.464702, 0.039473, 0.389575, 0.111515, 0.610609, 0.181053, 0.142385, -0.146505, -0.179649, 0.478095, 0.077638, -0.456793, -0.237461, 0.296293, 0.349658, 0.461625, -0.359622, -0.134431, 0.543697, -0.030903, 0.575412, -0.679602, 0.465708, -0.501182, 0.199310, -0.275319, 0.309758, 0.383525, 0.094065, -0.284714, 0.757267, 0.566914, 1.324400, 0.395881, 0.199692, -0.260246, 0.638464, 0.267993, 0.910603, 0.244605, 0.028453, 0.612503, 1.160760, -1.644797, 0.676138, 2.262386, 0.873134, -1.084911, 0.271373, 0.764648, 0.581021, 0.657814, -0.288688, 1.226920, -0.123107, -0.359000, -0.970459, -0.475661, 0.273566, -0.895039, -0.712410, 0.739886, 0.859764, -2.163115, -1.497404, 0.333825, 0.407643, -0.657152, 0.237570, -0.455638, -0.799740, -0.765499, -0.778474, -1.511658, 1.483183, 1.478127, 0.165309, 0.690627, 1.516525, 1.936717, -1.315273};
float bias_1[20] = {0.404953, 0.056946, -0.673889, 0.316241, -0.394929, 0.110216, 0.120478, -0.275374, 0.268333, 0.301130, 0.058231, 0.808073, -0.029486, 0.527385, 0.606200, 0.487504, 0.659223, 0.593168, 0.493178, -0.151132};
float weights_2[400] = {0.493675, 0.562375, 0.618927, -0.252680, 1.026473, -1.064303, -0.009070, -0.042386, 1.281890, -0.149613, 0.731820, 0.965481, -0.107443, -0.213632, 1.369891, -1.502478, 0.737763, 0.350927, -0.142321, -0.100003, -0.786710, -0.695860, 0.279455, -0.415560, -0.201321, 1.492412, -0.805194, 0.320569, -0.454517, 0.485162, 0.058036, -0.157376, -0.177548, 1.187961, -0.698425, 0.952787, -0.688924, -1.392332, -0.344525, -0.085370, -1.419538, -1.294766, -0.398431, -1.174466, -0.716002, -1.251604, -1.551510, 0.428928, -1.478790, 0.075935, -1.529142, -0.796108, -0.311568, 1.882268, -1.398911, -0.073513, -1.501462, -1.146894, 0.773213, 0.125208, 0.163020, 0.074515, 0.290560, -0.049163, -0.195766, -0.290690, -0.326946, 0.904056, 0.117567, 0.421912, 0.253056, -0.012882, -0.379872, 1.060227, -0.104777, -0.348220, -0.268032, -0.266767, 0.256401, 0.236913, -0.459891, -0.232422, 0.312242, -0.071289, 1.138203, 1.025740, -0.811842, 0.533727, -0.202028, 1.022595, 0.254599, 0.071945, -0.340441, 1.285840, -0.090447, 1.222876, -1.674253, -0.225973, 1.532734, -0.248118, 1.638486, 1.627323, 0.812210, 0.971915, 0.606608, -1.021688, 1.103359, -1.088268, 1.318456, 0.218481, 0.244751, 1.693279, 0.334540, -1.021994, 1.632961, 0.079161, 1.299477, 1.264090, -0.237256, 1.222430, -0.403603, -0.685888, 0.076451, -0.431358, 0.310544, 1.018055, -0.676711, 0.530693, -0.937750, 0.102608, -0.187557, -0.751582, 0.106886, 0.651016, -0.382993, 0.699867, -0.236342, -0.718804, 0.040416, 0.511576, 0.090031, -0.406749, 0.172704, -0.335034, -0.082365, 1.022837, -0.156908, 0.648589, 0.434501, -0.889782, 0.756758, -0.190549, -0.289761, 1.178523, -0.151330, -0.142933, -0.746909, -0.530853, -0.242290, -0.960303, -0.280925, 0.384612, 0.512676, 0.765650, 0.526576, -1.069302, 0.179892, -0.446173, 0.210644, 0.404768, 0.817248, 0.561580, 0.144041, -0.477671, -0.317466, -0.663937, -0.138825, 0.214766, 0.685905, 0.748034, 1.298983, 0.379656, 0.375590, 0.445859, 0.005517, -0.220600, 0.565977, -0.096836, 0.463362, 0.376833, -1.135324, 1.156515, 0.265033, -0.665293, 1.138814, -0.268500, 1.275355, 0.979249, 1.427202, 0.464120, -0.209417, -0.447714, -0.188758, -0.491650, -0.412147, 1.038696, -0.287376, 0.926756, -0.055005, -0.518290, 0.074442, -0.563258, -0.119496, 1.372136, -0.396546, 0.135008, 0.231556, 0.100969, 0.035121, -0.655778, 0.117718, 0.379072, -0.155850, -0.167451, -0.138050, 0.696195, 0.327389, -0.124774, -0.258891, -0.395793, -0.114910, 0.279431, -0.245084, 1.069126, 0.336979, 0.255634, 0.495445, 0.642098, -0.215491, -0.356070, -0.655340, -0.770147, -0.013789, -0.564879, -0.724848, 0.571474, -0.194762, 1.102516, -0.460649, 0.626353, -0.782652, -0.908801, -0.336560, 1.826634, -0.673567, -0.006878, -0.030148, -0.792071, 0.259301, 0.156129, 0.670007, 0.336685, -0.444027, 1.003993, 1.064826, -0.379182, 0.869087, 0.133901, 0.752505, 0.052104, 1.107628, 0.589672, 0.005902, -0.054884, 0.376777, 0.124730, 0.321186, 0.298332, 0.143707, 0.432111, 0.705484, 0.647219, -0.376012, 0.853490, 0.837763, -0.253170, 0.129508, 0.368874, 0.931311, 0.553461, 0.484980, 0.167932, -0.124573, -0.008453, 0.681939, 0.056247, 0.174516, 0.591174, 0.098450, -0.175738, 0.175736, 0.499063, 0.303404, 0.196795, 0.142251, 0.063350, 0.350745, 0.219918, -0.010940, -0.474143, 0.053342, 0.607604, 0.003055, 0.449904, 0.188597, -0.591892, 0.511998, 0.297653, -0.357272, -0.068203, 0.061793, 0.724746, -0.243076, 0.355675, 0.478236, -0.003504, 0.715798, 0.018607, 0.354350, -0.411599, 0.564282, 0.598531, -0.288169, 0.604703, 0.241716, -0.524121, 0.484701, 0.787527, 0.103339, -0.205696, 0.486066, -0.147544, -0.425283, 0.853179, 0.152386, 0.399680, 0.837007, 0.760404, 0.417324, 0.469064, -0.013787, 0.067912, 0.238787, -0.006720, 0.409934, 0.474461, 0.270557, 0.132592, -0.379542, 0.173167, 0.764548, 0.682616, 0.023655, 0.303888, 0.628244, -0.749465, 0.403329, -0.136472, 0.851642, 0.095921, 0.663768, 0.681064, -0.111394, -0.019756, 0.737933, 0.159695, -0.132716, 0.403131, 0.034528, -0.235659, 0.261355, -0.430793, 0.221378, -0.648657, -0.031593, -0.309648, 0.332931, 1.162976, -0.176371, -0.319434, 0.111202, -0.245852, -0.076317, -1.140025, 0.209215, 0.222634, -0.527973, -1.078692, 0.112613, 0.607734};
float bias_2[20] = {0.341374, 0.223261, 0.021413, 0.734555, 0.831434, -0.061809, 0.523994, 0.439624, 0.608255, 0.026397, 0.598209, 0.271601, -0.018137, 0.550852, 0.385467, 0.163307, 0.389199, 0.593867, 0.217248, 0.213287};
float weights_3[60] = {-1.001828, -0.676489, -0.118266, -0.722886, -0.006874, -0.623675, -0.859058, -1.102385, -0.207034, -0.136256, -1.452014, -1.181356, -0.939644, -0.836828, -1.645901, 1.437081, 1.161910, 1.265854, -1.082075, -1.243024, -0.270462, 0.757734, 0.308806, 1.380574, -0.629619, -1.478748, -1.061949, 0.055539, 1.635515, 0.057509, -0.302817, -1.123356, -1.070697, -1.002197, -0.072627, -0.704147, 0.025063, 0.069920, 0.065822, 1.683274, 1.455000, 0.995520, -1.423695, -0.991271, -0.317316, 1.160158, 1.259696, -0.318225, -1.862754, -0.524882, -0.867803, -1.492591, -0.535352, -1.545795, -0.096361, 0.860201, 1.648027, 1.516305, -0.336592, 0.482313};
float bias_3[3] = {0.273492, 0.227961, -0.158970};